0
0
-0.0012056263
-0.0053442437
-0.0052221306
-0.0005142141
-0.00029375619
-0.0009104457
0.00010086802
0
0
0
0
0
0
0
0
-0.001859682
-0.0010904392
-0.0035782687
-0.0039024639
-0.00036838415
-0.00019374804
0
0
0
0
0
0
0
0
0
0
0.0024802166
-0.0026382322
-0.00056454667
0.0013465573
-0.0011794841
-0.0009306898
0
0
0
0
0
0
0
0
0
0
-0.00055282551
-0.0018738644
-0.00024415215
-0.0037941746
-0.0033903904
-0.00099696638
0
0
0
0
0
0
0
0
0
0
-0.0013640155
-0.0022440157
0.0017299195
-0.0041762665
-0.0036579429
-0.00029610953
0
0
0
0
0
0
0
0
0
0
-0.0010732838
-2.5794012e-05
-0.00018672472
0.0014732016
-0.0027398672
-0.00084869924
0
0
0
0
0
0
0
0
0
0
0.0013373478
0.00025370007
0.0051814709
0.0071641295
0.0024336132
0.0021422496
0
0
0
0
0
0
0
0
0
0
0.0004912173
-0.0022644314
0.002108285
0.0050019883
0.0027999759
-0.00078533398
-4.303503e-05
0
0
0
0
0
0
0
0
0
-0.00064810069
-0.0028794357
0.0032286523
-0.0014577779
-0.0025032442
-0.001357961
0
0
0
0
0
0
0
0
0
0
-0.00023870787
0.002186402
-0.0048233964
-0.0012652808
-4.3095923e-05
-0.00039179856
-0.00024889404
0
0
0
0
0
0
0
0
0
-0.0028905182
-0.0004248601
0.00092885992
0.0013152172
0.0030150476
0.0023697081
-0.00028886335
0
0
0
0
0
0
0
0
0
-0.0020503837
0.00088666537
-0.00072910538
0.0035138165
-0.0009037737
0.0011016654
-0.00037548516
0
0
0
0
0
0
0
0
0
0.0021587536
0.00092285802
-0.0068597193
-0.002579737
0.0052801832
0.0022276591
0.0031555139
0
0
0
0
0
0
0
0
0
0.00062626787
-0.0010061673
0.00062634039
0.0023777969
0.0010060864
0.001820369
0.00052728801
0
0
0
0
0
0
0
0
0
0.0012428951
-0.0015370597
-0.00031789189
0.00041201751
0.0019149961
-1.6940659e-20
0
0
0
0
0
0
0
0
0
0
0.0026256701
-0.00054027082
-5.3837291e-05
6.5331558e-05
0.00030781733
-0.0021092652
-0.00045962329
0
0
0
0
0
0
0
0
0
0
-0.00052281818
-0.0012390417
0.0045195147
-0.00486601
0.00058213988
-0.00043124415
0.00010086802
0.00010086802
0
0
0
0
0
0
0
-0.00026929632
0.00058886438
0.0067850472
-2.0207913e-06
-0.0026869138
-0.0028942889
-0.00060516357
0.00010086802
0
0
0
0
0
0
0
0
0
-0.00044856788
0.0048679379
0.0030065968
-0.0053890208
0.0029442653
0.00058865675
0
0
0
0
0
0
0
0
0
0.0011419145
-0.0089572715
-0.00075608765
-0.0056106346
-0.00085991248
0.0020232119
-0.00063301605
0.000753714
0
0
0
0
0
0
0
0
0
0.00067728927
0.0068545542
-0.007537202
-0.0027589537
-0.00067651912
-0.00083922874
-0.00079099322
0.00080839789
0.00080839789
0
0
0
0
0
0
-0.00046067752
-0.0035771483
-0.0092926975
-0.0062843603
-3.1680385e-05
0.0016637585
0.00055197999
-0.00062136713
-0.00062136713
0.00080839789
0.00080839789
0
0
0
0
0
-0.0026078641
0.0038925167
0.0026964555
-0.0060478495
-0.0020852722
0.0054495339
0.00081192167
-0.00087016146
-0.00087016146
0.00080839789
0.00080839789
0
0
0
0
0
0.00096613285
0.00049005559
-0.0041378844
-0.0074790563
-0.0068412297
-0.00089999719
0.0031129715
-0.0016124605
-0.00018269535
0
0
0
0
0
0
0
0.0022686322
0.0050314856
-0.007123007
0.0049401862
0.00026615051
-0.00043607183
-0.0012925325
-0.0017392654
-0.0017392654
0
0
0
0
0
0
0
0
0.00088967732
-0.0023467892
0.0032644712
0.0062008668
0.0025352319
-0.0051111314
-0.0019487505
-0.001139871
0
0
0
0
0
0
0
0
0.00095062057
-0.00463947
-0.0024927068
0.0020073242
-0.0013743929
-0.0030063214
-0.00019675135
-0.00075914874
6.0530649e-05
0
0
0
0
0
0
-0.0010298151
-0.0019356543
0.003446918
0.003225626
-0.0025321024
-0.0076650563
-0.0037950643
-0.0043147383
0.0014889906
0
0
0
0
0
0
0
-0.00050223974
0.0026242656
0.01203857
-0.0072216834
8.6387969e-05
0.0020061934
0.0024479481
0.0028379378
0.0023910438
0
0
0
0
0
0
0
-5.3447879e-05
0.0019396381
0.002300997
-0.0091859186
-0.0015218105
0.0041325944
0.0016379275
0.00040972637
0
0
0
0
0
0
0
0
0.0010080116
0.0030293232
-0.0066980156
-0.0042890171
0.0023466751
-0.0037103915
-0.0014369995
0
0
0
0
0
0
0
0
0
-0.0019080222
0.0013831862
0.0022795855
0.0067935884
0.00088124466
-0.00046927459
0.0010296844
0
0
0
0
0
0
0
0
0
0.001249547
0.001249547
-0.0024546534
-0.0071905255
-0.0050078607
0.0054677078
-0.0051154266
-0.0002998538
-0.00049470254
-0.00035565035
-0.0002367772
-0.0002367772
0
0
0
0
0.00062779366
0.00037899939
0.0019242648
-0.0021169817
0.0022472937
-0.0026720641
-0.010716691
-0.0052866433
-0.0050377492
-0.00045651835
-0.0002367772
-0.0002367772
0
0
0
0
0.00062779366
0.0012048227
0.0020517495
0.0060853264
-0.0010078116
-0.0024469451
-0.0025868386
-0.0044496865
-0.005138617
-0.0073296344
0.00081923325
0
0
0
0
0
0.00037899939
0.00090787699
-0.0026430869
0.0036245782
-0.0012385019
-0.0035401743
0.0018109346
-0.0045347745
-0.0036368673
-0.0069708349
0.00076454936
0.00076454936
0
0
0
0
0.0012221663
8.229541e-05
-0.0022929406
0.0033057737
0.005824741
-0.0064947023
-0.012233963
-0.0099682268
-0.00551133
-0.0042190463
0.00059492327
0.00059492327
0
0
0
0
0.00022519994
-0.00017778423
-0.0026262465
0.0050653941
0.0081331031
-0.0065268334
-0.013335335
0.0020555248
-0.00059675926
0.00063323037
0.00053585233
0.00063877186
0.00080839789
0
0
0
-0.0026067477
-0.005257871
-0.00092423125
0.0041803331
-0.00178889
-0.014587347
-0.0061327443
0.0074815471
0.0057941889
0.0044510616
-0.0007242866
-0.00062136713
0.00080839789
0.00080839789
0
0
0.0014743113
0.0003764166
0.0011190992
-0.0040631676
-0.0042306529
0.00051477773
-0.0095655546
-0.0078917667
0.0036792012
0.0036117337
-0.00062136713
0.00080839789
0.00080839789
0.00080839789
0
0
-0.0016126513
-0.00039661332
-1.4396459e-06
-0.0029097735
-0.0070006875
1.8988372e-05
-0.011468434
-0.0048358985
-0.00078980625
0.00073502638
0
0
0
0
0
0
-0.0019224618
-0.0021619971
0.00095851696
-0.0021275177
0.0044529163
-9.3048831e-05
0.0018513363
-0.0033838511
-0.0089974795
-0.0025115353
-0.0021471865
0
0
0
0
0
-0.0016623822
-0.0014157156
-0.0022047071
-0.0011225088
-0.0027580603
-0.0034457948
-0.0048790537
-0.00754268
0.00043996464
0.00095245161
0.0020037475
0
0
0
0
0
-0.00095655915
6.7293659e-05
-0.0037485461
-0.0044036843
-0.0028146191
0.0026423491
-0.0083026327
0.00033204019
-0.002270021
-0.0014404518
-0.00075779104
-0.00075779104
0
0
0
0
4.7420122e-05
0.00093222072
0.0050148964
-0.00017590818
0.0084631629
-0.0047812308
0.0035448093
0.0069298339
0.005398938
-0.0017939303
-0.00014007876
-0.00014007876
0
0
0
0
0.00010086802
0.00098566862
0.001448498
0.0010438093
-0.012195531
-0.0020377524
0.0022646142
0.0019003146
0.0021370917
-0.0010006839
0.00039964495
0.00039964495
0
0
0
0
0.00010086802
0.0011247208
-0.0014405933
-0.0064387601
-0.014870058
-0.0094427271
-0.0015745863
-0.0011421771
-0.0020813348
-0.0002428928
-0.0002180673
-0.0002180673
0
0
0
0
0.00062779366
0.0019209428
0.0017493886
-0.0084597412
-0.0038747967
0.0055287275
-0.0013963955
-0.0013850314
-0.0021612297
-0.0003539765
-0.0002367772
0
0
0
0
0
0.00062779366
0.001249547
0.00065079739
0.0001636036
0.0025640186
0.00092671259
-0.0033966843
0.0067095957
0.0011925815
0.0052531776
0.0029262356
0.0011133358
-0.00021974117
0
0
0
0.00071131799
0.00071131799
0.00052902423
-0.00081437972
0.0011955991
0.0069467952
-0.0095780166
-0.010215943
-0.0040281336
0.0054150098
0.0029490155
0.0025412319
0.0020699815
0.0020699815
0
0
0.00062779366
-0.0015275941
-0.00096758892
0.0018502009
-0.0078599053
-0.0063052862
-0.0055769244
-0.008715312
-0.0055949748
-0.0064745545
-0.00039566844
0.00040459019
-0.00024000696
-0.00024000696
0
0
-0.0014267261
-0.0016755204
-6.81456e-05
-0.0028328849
-0.00036477647
0.0090304585
0.007645417
0.0040454376
-0.0017570774
-0.0020672048
0.0059919236
0.0048714643
0.001988783
-3.8163511e-05
0
0
-0.0014267261
-0.00014792629
0.00071264931
-0.0011903772
-0.0054027103
0.0089681726
0.0073134005
0.00057054684
0.0044366624
-0.0032631478
-0.0027811765
0.0047059138
0.0018299747
0
0
0
-0.0014267261
-0.002250063
-0.0025865466
-0.0047318987
0.00050585327
0.0038603831
-0.0056993742
-0.0059649358
-0.0092886277
-0.0007437336
0.0033499952
0.00095344003
-0.001279381
-0.0007523165
0
0
-0.00058881898
-0.0021955946
-0.0018874906
-0.00034730509
0.004618247
-0.0041281655
-0.0074723926
-0.0016867135
0.0027592776
-0.002718027
-0.002067545
-0.0018739105
-0.0013613581
-0.00079858286
0.00080839789
0
0.0020537742
0.0044474658
0.0035380574
0.0038365691
0.00012342684
-0.0013235768
-0.010863213
-0.0029044729
0.0008002902
-0.0046824543
0.0039043266
0.0010424675
-0.0012339469
0.00080839789
0.00080839789
0
0.0019485968
-0.0012042287
0.0010035249
0.0020839402
-0.0037668126
-0.0087105883
-0.008595814
0.0043301811
0.003359908
0.00084371923
0.0033161119
0.00045552285
0.0015981881
0
0
0
0.00302579
-0.0033834626
-0.0034616736
0.0010044819
-3.4333021e-05
0.0019403748
-0.0029591459
0.0033771438
-0.00064807863
-0.0028401506
-0.0072684968
-0.0075375922
-0.00092025916
-0.00064253772
0
0
0.003654985
-0.0035829071
-0.0033109062
-0.0067754677
-0.0030181126
-0.0031205676
-0.0030660511
-0.0077331215
-0.0066284966
-0.004747129
0.00080762868
0.0024510326
0.00076097337
0
0
0
0.0018344858
-0.00095954223
-0.0027302406
-0.003759129
-0.0037862498
0.00019227264
-0.0039178655
-0.003271285
-0.0024472501
0.0031782899
0.0016740035
-0.0014488688
-0.00086641271
0
0
0
0.0018803076
-0.00096331601
-0.0036496948
0.0021515554
0.0072878096
-0.0020006727
0.0067032133
0.0045618927
0.0013995811
0.0029971802
0.0011859494
-0.0020146943
-0.001037162
0
0
0
0.001254965
-0.00048339283
-0.0031697717
-0.00074392103
-0.00065687095
-0.014300497
-0.0027998388
-0.0088504469
-0.00094958587
0.0036422329
-0.00063796889
-0.0004199016
-0.00021974117
-0.00021974117
0
0
0.0013940171
0.0013940171
0.0016689769
-0.00013285789
-0.0045870957
-0.011207573
-0.0091879778
-0.0051167049
-0.0035838464
-3.2149714e-05
-0.00013153067
0.00039964495
-4.3368088e-20
0
0
0
0.0011206841
0.0011206841
0.00085138786
-0.0090634516
-0.0097042536
-0.0043043685
-0.0019797112
0.0003214766
-0.0040933425
-0.0019670508
-0.0017058888
-0.0012057613
-0.00021974117
0
0
0
0.00062779366
0.00062779366
0.00035849735
-0.00011193375
0.0016274026
0.0011311846
0.005580341
-0.0050303107
-0.00014430216
0.0028064775
0.0024700104
0.002631837
0.0019867131
0.0015698542
0.0015698542
0
0.00071131799
0.0015197158
0.0012504195
-0.0014961105
-0.0075835055
-0.0064441953
-0.0044322712
-0.011139216
-0.011527563
0.00097937335
0.0048499014
0.0026856652
0.0026856652
0.0029977504
0.0029977504
0
-0.0015275941
-0.00071919616
-0.00096799049
0.00010940071
-0.0034337521
-0.00024627137
-0.014860871
-0.0058782804
-0.0024043194
-0.0030920256
0.0046207029
0.0019798204
0.0028231142
0.0016553386
0.0016553386
0
-0.00061832817
-0.00061832817
0.00055755209
0.0033342256
-0.0034464924
0.0011747052
0.0074760863
0.00591374
0.006696065
0.011080944
0.004139178
6.9116439e-05
0.0016123035
-0.0003212055
-0.00027817048
0
-0.0014267261
-0.0012627981
0.0010451777
0.0005279032
-0.0026448176
-0.0034390907
-0.0037054073
0.0027911712
0.0038103003
0.010064456
0.0080804126
0.0014255885
0.00088628964
-0.00079048
-0.00079048
0
-0.0031441567
-0.0007329589
0.00065764267
0.0019020559
-0.0016292415
0.001852895
0.0028242895
0.00054581393
-0.0028645615
0.0024721604
-0.0044266181
0.002762462
0.0014169752
-0.0011784263
-0.00092953222
0
-0.0010720011
-0.0018895058
0.0024217784
0.0012899406
-3.4148521e-05
0.0018484262
0.0013155637
0.0046177674
0.0045182654
0.01458074
0.0058012549
0.00021576878
-0.00012713041
-0.0014541439
-0.00092953222
0
0.0017219215
0.0025362042
-0.0031655675
-0.0014753056
-0.0063049342
-0.0046385815
-0.00012317563
-0.0028479218
-0.00077897799
0.0030850798
-0.0010673348
-0.0040162951
-0.0022130243
-0.0013196248
-0.00070839137
0
0.0012869643
0.00096870866
-0.0048023658
-0.0064401487
-0.0070352303
-0.0094305864
-0.010592726
-0.0042627337
0.0035366914
0.0028839319
0.0048795715
0.0005069332
0.0035340597
0.0013850551
-0.0011426652
0
0.0032211929
0.00080411026
-0.0030016385
-0.0025885589
-0.0018971245
-0.0026493692
0.00027375549
-0.0020686735
-0.0033184811
0.0040987916
0.0021682414
0.0029535149
-0.0061936895
-0.004383089
-0.0085847126
0
0.0043263631
0.0019092805
8.9044508e-05
-0.002287189
0.0036152599
-0.0055783358
-0.0098971343
-0.0084416661
-0.0079142964
-0.0055651967
-0.010993744
-0.0075279237
-0.0032218208
0.0015224124
0.00089534197
0
0.0014243914
0.0014243914
-0.0016813318
-0.0025952712
-0.0045686564
-0.0037624282
-0.0051423903
0.0012742928
-0.0012871946
0.0019818004
-0.0036922907
0.00017029521
-0.0011090998
-0.00022387496
-1.0842022e-19
0
-0.00058259675
-0.00072164892
-0.0024493632
-0.001831433
-0.0046888171
0.00082374684
0.0023624112
-0.0021347655
0.010286334
0.00068630913
0.0028083697
0.0005129482
-0.0014350249
-0.00061436539
-0.00021974117
0
-0.00053677498
0.0001159111
-0.0030498742
-0.0019962208
-0.0034380297
0.0021544565
0.0039640111
-0.0026829313
-0.0085591516
-0.0058548446
0.0014622126
0.00091286079
0.0013064622
-0.00021974117
-0.00021974117
0
0.0020218107
0.0025660668
0.0017717471
-0.0010160189
-7.7397868e-05
-0.010520184
-0.00089521095
-0.0049028876
-0.0030095645
0.0020183069
-0.0014032843
0.00022945295
0.00044752026
-0.00021974117
-0.00021974117
0
0.0019209428
0.0019209428
0.0016516465
0.0028387166
-0.0083082262
-0.0026443501
-0.0030631246
0.0035895575
0.0030322163
-0.003432923
-0.0038223735
-0.0021923876
-0.0022932556
-0.00053117564
-0.00053117564
0
0.00062779366
0.00062779366
0.00062779366
-0.00042454794
-0.0016674887
0.0026796567
0.002255429
-0.0026046515
-0.0036356489
-0.0093704872
0.0015085926
0.0046397196
0.0050334823
0.0018579118
0.0023890876
0
0.0014361915
0.0014361915
0.001075197
0.00021475833
-0.0013341026
-0.0010561786
-0.0068164417
-0.0063676517
-0.011651514
-0.013113659
0.0037149263
0.0056503015
0.0072783274
0.0031664832
0.0028473774
0
-0.00071919616
-0.00071919616
-0.0010801908
0.00026510953
-0.0028442573
-0.0022719719
-0.0034460416
-0.0064544771
-0.0040447679
-0.0023466155
0.0026536246
-0.0020275929
0.0036863009
0.0047798497
0.0037624473
0
-0.00061832817
-0.00061832817
-0.0028546036
-0.0010221672
-4.2235431e-05
-0.00066392549
-0.0041119345
-0.0050328267
0.0029457065
0.0087428726
0.0060435059
0.0010897423
0.0026351446
0.0015996217
-0.00041404931
0
-0.0014267261
-0.00061832817
-0.0028571398
-0.0014430728
-0.00021490388
-0.0043652197
-0.0048156241
-0.0032341604
-0.010832961
-0.0088796504
-0.01347745
-0.0015461735
0.0041753873
1.8256254e-05
-0.001039374
0
-0.0017143916
-0.0031441567
-0.0014111038
-0.0015948706
-0.0026529878
-0.0052090879
-0.0058192862
-0.0049416143
-0.0098545849
-0.016272889
-0.01251073
-0.0043749795
0.0051629944
-0.001703038
-0.001703038
0
-0.0018572962
-0.0018572962
-0.0022739735
-0.0048899585
-0.00242907
-0.00037987597
0.00038509382
-0.0080389101
-0.0028892937
-0.0044265296
0.0077146729
0.012317331
0.0088106357
0.00074558466
-0.0018296291
0
0.0027839462
0.0027839462
-0.00085790321
-0.0065929778
-0.0065503297
-0.0067897607
-0.0046178596
-0.0043885522
-0.0026149692
-0.006261982
0.00094397069
0.0016264436
-0.0016929671
-0.0066407127
0.00045300758
0
0.0028996714
0.0036849666
0.00012256263
-0.0025594153
-0.0040753074
-0.004073129
-0.0053084288
-0.0067802891
-0.010655736
-0.0055754394
0.00085386017
-0.0037091929
-0.00032392793
0.0045647295
0.0043118061
0
0.0032244148
0.0031922052
0.0033505114
0.00028718702
-0.006420759
-0.0058235056
-0.0042200536
0.0022134501
0.0069322535
-0.0098911477
0.00047962859
-0.0059348266
0.00038051963
-0.0017086463
-0.0047640298
0
0.0028842867
0.002066782
0.00027682222
-0.0035634169
-0.0021241652
-0.0019867185
-0.0037152895
-0.0014078574
-0.00017357901
-0.0026766376
0.0025208329
0.00015541902
-0.001382477
-0.0017318306
-0.0017318306
0
0.0030271914
0.0030412152
2.3541064e-05
-0.0030951747
-0.0050187665
-0.0055867173
-0.0024401282
0.0023615973
0.00122163
0.012166564
-0.0037665842
-0.0037402005
-0.00076499936
-0.0023870277
-0.0012351887
0
0.0016954336
0.0025097162
0.00036802873
0.0012338274
-0.00036191245
-0.0031559404
-0.00059761823
-0.0034281798
-0.0023749813
0.0076088426
0.0033729444
0.0048628496
-0.0032777549
-0.00061436539
-0.00061436539
0
0.0018803076
0.0001159111
-0.0010573157
-0.0013847589
0.0003748931
-0.0019117526
-0.0028865915
-0.0005915215
-0.0014966644
0.0049351878
-0.0047515729
-0.0067464006
0.0030669938
-0.00045651835
-0.00045651835
0
0.0019382732
-0.00047880938
-0.0010036399
-0.0013285016
0.0011796341
-0.0048203808
-0.0022080331
-0.0038081037
-0.00094176928
-0.0057663741
-0.00053894427
-0.00073595514
-0.0018597959
-0.00045651835
-0.00021974117
0
0.00062779366
0.0019209428
0.0010630268
0.0029568425
-0.00101063
-0.00405904
-0.0023223774
-0.0042735985
-0.0011202531
-0.0035738687
-0.0031379187
-0.00040762793
-0.00065619976
-0.00053117564
-0.00053117564
0
0.00057434576
0.00057434576
0.00021335117
-5.594514e-05
-0.0020743299
-0.0023552948
0.0029475032
-0.00024182937
0.0058599715
-0.0045651067
0.00028604007
5.5175344e-05
0.0010243882
0.0021904539
0.0048889858
0
0.0014361915
0.0014361915
-0.0018434543
-0.0018434543
0.00047345302
-0.0082607809
-0.0084965844
-0.0015494234
-0.002347419
-0.0058273436
-0.0029874681
0.0046549686
0.00027233144
0.0033925318
0.0043203863
0
0.00062779366
0.0014361915
-0.0043159924
-0.0043159924
-0.0044608447
-0.0048617395
-0.006917485
-0.00042710241
0.00018150407
0.0036283399
0.0019700108
0.0021948169
0.00079028058
0.0020607794
0.00084160379
0
0.00062779366
-0.0016305136
-0.0038939719
-0.0038939719
-0.002190094
0.0024991296
-0.0030018268
-0.0066999951
-0.0032792646
-0.0055108066
0.0036979332
0.0028915748
0.0042947084
0.0034209436
0.001363901
0
0.00067532697
-0.0014800609
-0.00083360914
-9.1349058e-05
-3.828268e-05
-0.0032099318
-0.0034629898
-0.0013864918
0.0040741162
-0.0073394096
-0.00086848624
-0.00017929387
-0.0015057432
0.00065415847
0.0011235678
0
0.00072866172
-0.00028481157
-0.00038979514
-0.001554543
0.00034283096
-0.00096196937
-0.0050956947
-0.0017899431
-0.0027408188
-0.0094380407
-0.0014489517
-0.0056939055
0.0035008604
0.003334749
-0.00043457744
0
0.00072866172
0.00044099611
-0.0024412284
-0.0029916284
-0.0030254493
-0.00095330685
0.0047432468
0.0011350279
-0.0025965946
-0.0093528079
-0.0047816364
-0.015488693
-0.0066021653
0.0065073334
-0.00030151888
0
0.0020218107
0.0015912406
0.00098751683
0.0012114302
-0.0025120766
-0.005391431
-0.0054783062
-0.005452523
0.00089285144
-0.0056035928
-0.0036548662
-0.0014484352
0.00080133299
0.0036796667
0.00059682486
0
0.0022744397
0.0031981221
0.0014475145
0.0015848061
-0.0030031193
-0.0032486115
-0.0035085548
-0.0067271055
-0.0038778619
0.0031748719
-0.0098535623
-0.00048738453
0.0065524802
-0.0014301031
0.0041186381
0
0.0013940171
0.0023979964
0.0013508032
0.002549808
-0.0015921837
-0.0018759219
0.0016972809
-0.0032986656
-0.011256303
-0.00044772078
-0.0050459034
-0.0043843314
0.00077802647
0.0015375833
0.0015909181
0
0.0013940171
0.0030271914
0.002695896
0.00010680063
-0.0042352844
-0.003889977
-0.003713757
-0.0035413499
0.00061572314
0.0029705768
0.0061110943
0.0010557139
-0.0025475905
3.1530813e-05
0.00041247194
0
0.00059375854
0.0010342272
0.0018853367
1.3240574e-05
-0.0031953079
-0.0019125728
-0.00014173363
0.004301365
0.004246843
-0.0012334717
0.003928192
-0.0005803575
-0.007619252
-0.0058088158
-0.00279794
0
0.001254965
0.0017412554
0.00068431272
-0.0013781105
-0.00056165043
-8.4547297e-05
0.0022867932
-0.00043617614
0.00094050763
0.0001894701
-0.00047654068
7.4390402e-05
0.0054816008
0.0015108599
-0.0041501853
0
0.0013940171
0.00037814348
-0.00014668694
-0.0035750831
-0.0028101392
-0.0020573491
0.0015848628
-0.00048873096
0.0016812406
0.0026017542
0.0051820474
0.0010269141
-0.011109045
0.0025523196
-0.00071544078
0
-0.00010291945
0.0011902297
0.00033231379
-0.0020847688
-0.0001909531
0.00027228543
-0.002933596
0.0018618569
-0.00010350738
0.0088315662
0.0039841454
0.0039708051
-0.00075189496
-0.00034249216
-0.001246792
0
0.00062779366
0.00062779366
0.00026679906
0.0012906519
-0.0034981193
-0.0016623226
-0.0062022572
-0.0049001193
0.0047814115
0.0089786295
-0.0024636248
-0.0048199436
0.0026820838
0.0007879333
-0.00015037296
0
0.00062779366
0.00062779366
0.00026679906
0.00026679906
-2.4972521e-06
-0.0018250394
-0.0027860319
-0.0033571851
0.0016173088
0.0029459731
-0.0031536606
-0.0033772113
0.00071548979
-0.0017676181
0.0041706203
0
0.00062779366
-0.0014824597
-0.0018962437
-0.0022572384
5.9668993e-05
-0.0091603929
-0.0047842385
-0.003608712
-0.0023683829
-0.0011068197
-0.003382043
-0.0025987735
-0.00036532298
0.0036985765
0.00132255
0
0.00052487425
0.00037166924
-0.0038392879
-0.0038392879
-0.0052546458
-0.0056771794
-0.0023062446
0.0086186705
0.0071514146
-0.008382204
-0.0013975546
0.00287403
0.0032836844
0.0027943377
0.0031505295
0
0.0005795582
-0.0016291643
-0.0019519954
0.00073090737
0.0011121987
0.0078740027
0.0078324918
0.0086686024
0.0080661951
-0.0055648517
0.003226913
0.0014860699
0.0043632933
0.0016766331
0.00045506441
0
0.00040483283
-0.001933237
-0.001933237
-0.0028471302
-0.0043574455
-0.00072328834
-0.002647782
-0.011808323
-0.012340234
-0.0096490653
0.0023946229
0.0050004665
-0.00534108
-0.0011757865
-0.00080845505
0
0.0033148653
0.0011594775
0.0021964086
0.0021964086
0.00059699448
-0.0035086297
0.0027362718
0.0071021472
-0.0027434013
0.0073622251
0.0019686515
0.0087363031
0.00032177294
-0.00067320291
-0.0030204812
0
0.00072866172
-0.0003256182
-0.0028932069
-0.0027105247
-0.0030315977
-0.0036224902
-0.0014682848
-0.0024026434
-0.0051399465
0.00010560884
0.0010880576
-0.010066281
-0.0015997912
-0.0021500611
0.0014295613
0
0.00072866172
0.00029809159
-0.00057492865
-0.00095586979
-0.0013345771
-0.00071233447
0.0047744918
0.0032990773
-0.0011097669
0.0073460084
0.0086873136
-0.0018008004
-0.006912394
-0.007071015
0.00021542485
0
0.00035349681
0.0011156322
0.0015863351
0.0010554693
0.0047559696
0.0013871724
-0.0043168818
-0.0052251746
0.0009545568
-0.0038093529
-0.0088561522
-0.012501846
0.0099808369
-0.0003424371
-0.0030741396
0
0.00010086802
0.00039338588
0.00098927983
0.0016059693
0.00010367515
0.00080888689
-0.0025462951
-0.0031581537
-0.0028642835
-0.004106645
-0.0061471728
-0.0049610334
0.0020240943
0.0041591991
-0.0017876299
0
0.00010086802
0.00076146133
0.002520561
0.0023815087
-0.0003048701
-0.001423493
-0.003497601
0.00032271488
0.00092023768
0.0050280057
0.0052997912
0.01299792
0.0069812844
-0.00095817738
-0.0017342952
0
-0.00087472558
-0.0015600427
0.0025161048
0.0020584178
-0.00091113191
-0.0018805878
-0.0063566063
-0.0013401737
0.0018141762
0.0002558963
-0.0026585883
-0.0018625329
-0.0026368359
0.0017389008
6.0530649e-05
0
0.0005795281
-0.00049538194
-0.00091247604
0.0012230099
-0.00080341729
-0.0029634202
0.0024753099
0.0017952845
-9.8912664e-05
-0.0010046934
-0.0024089864
-0.0061973142
0.00073968049
0.0047476203
0.0014217212
0
-0.0002180673
-0.0002180673
-0.0012929774
0.00068930356
0.00079017156
-0.0011536014
-0.003689379
0.0034777548
0.0039636688
0.0040512756
0.0066373497
0.0062789228
0.00069432182
0.0039866306
-0.0014737399
0
0
0
-2.1684044e-20
0.0024822538
0.0024822538
0.0013619015
0.0010324483
0.0003352561
0.0068552033
0.0023567269
0.0041256561
0.0049613682
0.00021556178
-0.00016603664
-0.00046108721
0
0.00062779366
0.00026679906
0.00026679906
-0.0016323612
-0.00033921213
0.0001226699
-0.00084628374
0.00053552038
-0.00099125248
-0.0026052392
0.0051793293
0.0018486661
-0.0012756073
3.2718719e-05
-0.00045590824
0
0.00062779366
0.00014002655
0.00014002655
0.00014002655
-0.00018942676
5.8463698e-05
-0.0009899243
-0.0029961693
-0.0022614913
-0.0047785081
0.0033855469
-0.0033531771
-0.0025738231
-0.0015734339
0.0012504543
0
0.00062779366
-0.0024285216
-0.0024832054
-0.0017550749
-0.0021160697
0.0016559346
0.0022596347
0.0044406415
-0.0071230424
-0.011757782
0.0015963985
0.0010089868
0.0069094608
0.0012298531
-0.0026111472
0
0.00052487425
0.0023074378
-8.9664696e-05
-0.0039766547
-0.0041303639
-0.0079432642
0.0057450798
-0.0033829918
-0.0017266837
-0.00447013
-0.0019589949
0.0058736601
0.00080234616
0.0051228697
-0.0012553373
0
0.00041809163
-0.0023948608
-0.0031312306
-0.0022250644
0.0036902064
0.00048523612
0.0065516825
0.0060375435
-0.00048032557
-0.0026105971
0.0018226303
0.0043633482
0.00055060151
0.0024162342
-0.0018226036
0
0.00057445891
-0.0020761415
-0.0018395946
-0.00093342841
-0.0025840676
0.0080644209
0.0037083309
-0.00035572978
-0.006581028
-0.0075437408
-0.007930778
0.0038883928
-0.0046186582
-0.00015074795
-0.0004835843
0
0.00062779366
-0.00056016032
-0.0031461183
-0.00055991457
-0.0012453501
-0.0025648244
0.0033243161
0.0023577386
0.00070883747
-0.0031812494
-0.0028408468
0.0099468995
0.0013914694
0.0011336681
-0.0017639542
0
0.00072866172
-0.00059491448
-0.00073781901
-0.0028932069
-0.0028534294
-0.0026207883
0.0045899986
0.0018948445
0.0025611531
0.0059116045
0.0057549793
-0.008505688
0.0015545404
-0.0021034514
0.0013625441
0
0.00010086802
-0.0010963164
9.63891e-05
-0.0013143672
-0.0013143672
-0.00078645872
-0.0013834332
-0.00018358805
0.0043146512
0.006248767
0.0010646634
0.013801728
0.00064928731
-0.0030780029
-0.00024670587
0
0.00010086802
0.00049192674
0.00044610875
0.0019750062
0.0013615969
0.0023105596
0.00071314897
-0.0010983205
-0.0034713706
0.0035787809
0.0089096837
0.0045734192
-0.00064231094
-0.0010134025
-0.0014100859
0
0.00035349681
0.0030477911
-0.002111872
-0.0022649439
-0.00013826623
-0.0025960775
-0.0036468231
-0.0039617233
-0.0068221577
-0.0036672957
-0.00090655976
-0.0046484587
-0.0045135221
-0.00063710642
0.0028883708
0
0.00035349681
0.0020275374
-0.0059480974
-0.005805193
-0.0038124484
-0.0052860277
-0.0058894954
-0.0080480939
-0.0058426019
-0.0041516637
0.0012922905
-0.0070927748
0.003976699
0.0047000749
0.002390316
0
-0.0006993906
-0.001514221
-0.00094473996
-0.0060453038
-0.0055051213
-0.0025814779
0.0046377727
0.00015206818
0.0014893285
0.0022830381
0.0010148694
-0.0080870735
-0.0074421563
-0.0020756701
-0.0005411118
0
-0.00013905221
0.00014203928
-0.00056231843
-0.0025945145
-0.0064114411
-0.0027399929
7.3048657e-05
0.002697828
0.0033812975
0.0038391408
0.0044584903
0.0068856874
0.0015622679
-0.00094523578
0.0035705164
0
0
-0.0009457391
-0.0009457391
-0.0014320295
0.0026740681
0.0024924472
-0.0043049511
0.002737602
0.0070383716
0.0043114177
0.016309643
0.006558985
0.0072021866
0.0024433222
0.0044771931
0
0
0
-0.00013905221
-0.00013905221
-0.0026268321
-0.0031611894
-0.0038176135
-0.0028378644
-0.0010525417
0.010108475
0.0050206333
0.001213948
0.001539057
-0.0014412004
0.00084244116
0
0.00062779366
0.00026679906
0.00026679906
0.00026679906
-0.00014154946
0.00093314581
0.0019168212
0.0010899903
-0.0051707118
0.0058139996
9.8218014e-05
0.0013902243
-0.0014425039
0.0020733692
0.0013924295
0
-0.00017246498
-0.00031151719
-0.00097740605
-0.00097740605
-0.00097740605
-0.00095711375
-0.0010555258
0.00049659953
0.0014620451
-0.0053816019
0.0039156741
-0.0051870644
0.0044990219
0.0005484054
0.0010689177
0
-0.0021534879
-0.00029098187
0.0038449066
0.0047911755
0.004767363
0.0021743001
0.0040404708
0.0066110776
0.0092625255
-0.0032036919
0.00078486092
-0.0016576448
-0.0061302497
-0.00730026
-0.0047448557
0
0.0015012617
0.0015076498
-0.0005295127
0.0020878881
0.0019780779
0.0016014832
0.0016175734
-0.0034967223
-0.0080648661
-0.0062748906
0.0019344991
-0.0049955896
-0.0033890358
-0.0032666845
-0.00502215
0
0.0021232783
-0.0073550777
-0.0077051353
-0.0095915562
-0.006975038
-0.0014061525
0.0048417468
-0.0063992543
-0.0072557316
-0.0021292176
-0.0014410714
0.0014082283
0.0044363877
-8.7898828e-05
-0.00080663944
0
-0.0071968227
-0.010053013
-0.0057378961
-0.0079622632
-0.0039165062
0.0012067977
0.00048357376
-0.002143404
0.00078027853
0.0025270202
-0.013551399
-0.01113606
-0.0054630702
-0.00050023175
-0.0030529457
0
-0.00088148337
-0.0057581072
-0.0049167555
-0.0039380202
-0.0051689819
0.0018204798
-0.00050328183
-0.0036941797
-0.0086225783
-0.0081131402
-0.0023787422
0.00014643639
0.0096421959
0.0031930953
0.0034553227
0
0.0013947689
0.0079149269
0.0077720224
-0.00198383
-0.002166512
-0.0055121062
-0.0068283924
-0.00285251
-0.0086137196
-0.011161113
0.00031315765
-0.0029086249
-0.0040401807
4.3905155e-05
0.001841296
0
-1.0842022e-19
-0.00046617468
-0.00017913571
-0.0001932108
-0.0018443359
-0.0017613752
0.00093698903
-0.0012532689
0.00094839116
0.002900335
-0.0024955063
-0.0019763883
-0.0065345699
-0.00011303679
0.00045580007
0
0
0.00012085388
-0.00015577409
-0.00068184099
-0.0019467404
-0.0030102807
-0.0031665899
-0.0027514321
-0.00058291684
-0.0061290688
0.011617749
0.0063733696
0.002620915
-0.0016194525
-0.0010673204
0
-0.0018945576
-0.0047137942
-0.002444162
-0.00062881119
-0.00086207973
0.0046837013
0.001874215
-0.00072945032
0.002080278
0.0028811481
-0.0036243964
-0.007678261
-0.00017572232
0.00057878805
-0.00087303953
0
-0.0024569549
-0.0040540113
-0.00088388694
-0.0050249798
-0.0026739445
-0.0012683227
-0.0023620625
-0.0036368407
-0.010959245
0.0015038674
-0.0002700882
0.0013774156
0.0011945947
0.0040913476
0.0030634778
0
-0.0033837724
-0.0048646871
-0.0023876533
-0.011587298
-0.0086045694
-0.0049377875
-5.7888537e-06
0.0043070163
0.004983183
0.0035634371
0.0036953434
-0.002570872
-0.0068034097
-0.0027028823
0.0029228171
0
0.0034920631
0.003554584
0.0027555816
0.0021983965
-0.005505898
-0.008531495
-0.0050512012
-0.0045110211
-0.0041776062
-0.00078229222
0.0037148972
0.0045913872
0.00023258415
0.0025244663
0.0019811473
0
0.00039277127
-0.00077039783
-0.00071577175
0.0045487457
0.010322127
0.01225705
0.0042458605
0.0033200085
0.0056174779
0.005969218
-0.0020967922
0.0038197015
-0.0021115902
-0.00023812165
-0.0022688445
0
-0.00079861196
-0.00079861196
-0.0021227801
-0.0048996634
-0.005488283
-0.0047508809
-0.0042688623
-0.0028331839
-0.0025795659
0.0037843972
-0.002423787
0.0075862734
0.00022336219
-0.0009304402
-0.0028356207
0
0.00062779366
0.00062779366
0.00052157918
0.00037867462
0.00037867462
0.00067165826
0.0020597258
0.00049820921
-0.003616777
-0.004236998
0.0012905396
-0.0031858122
0.0011524471
0.0024405553
-0.0013185231
0
-0.0011159157
-0.0020280324
-0.0022938573
-0.0036562232
-0.0036562232
-0.0025069686
-0.0028820641
-0.0012025395
0.0024554387
-0.0007390721
-0.0047405008
-0.00068811188
-0.0010354458
0.0044037285
0.00194028
0
-0.0029819473
0.0016376935
0.0015339056
0.0054947366
-0.0027771802
-0.00016939075
0.00073141663
0.0020173348
-0.0010321019
-0.0044458928
0.0014462103
0.0052484898
-0.0016890344
-0.0035204787
-0.00032915265
0
0.0036456576
0.0062271166
0.0025372517
-0.0028120766
-0.0061309747
-0.0062845186
-0.0065298127
-0.0071862238
-0.0032661739
-0.0069819414
0.001428164
-0.0017914315
-0.0032077339
-0.0086886035
-0.0017015901
0
-0.0012400266
-0.0022910445
-0.0044281809
0.0016169457
-0.0016420673
-0.0049673701
-0.00063692342
0.0011659949
0.0098432777
0.0075072809
0.0064856643
0.0042891209
0.0011723851
0.00055130711
-0.00079050072
0
0.002473759
0.00020450584
-0.0037292268
-0.010999996
-0.0089247022
-0.0083282981
-0.01079573
-0.0036448676
0.0026922976
0.00084798655
0.0020621766
-0.0018368848
0.00048410028
-0.0016132887
7.0023249e-05
0
-0.0040457705
-0.0093500698
-0.011718267
-0.0081122667
-0.011287901
-0.012011803
-0.0057490189
-0.0059340852
-0.010069218
-0.0038518978
-0.0053123701
-0.00019631373
0.0019237475
0.0022563364
0.0018208848
0
0.0034600887
0.0020219474
0.0028907692
-0.0010627011
0.0024901645
-0.00038422964
-0.001562258
-0.0039817626
-0.0045688269
-0.0029791549
-0.00099008158
-0.0039177416
-0.0051685045
-0.00036996894
0.0019177682
0
-0.0072778775
-0.007597032
-0.0045443778
-0.0070973975
-0.0024012735
-0.00077845989
-0.00083307934
0.0033009364
0.0015546441
0.0089971861
0.0068874191
-0.0097104264
-0.010448203
-0.00047554722
-0.00026288608
0
-0.01106171
-0.01106171
-0.01054202
-0.0099802781
-0.0098670591
-0.011611807
-0.0075317817
-0.0077714659
-0.0046966588
0.0081168376
0.0074206004
0.0082409345
-0.0016884655
-0.0027447985
-0.0023364502
0
0.0016658881
-0.00025731372
-0.0019014715
0.0014815639
0.0025033599
0.0029190863
0.0021968172
-0.0022823918
0.0015121116
-0.0051886905
0.0022915704
-0.0039226208
-0.00023253348
0.0028540851
0
0
0.0022006042
0.00067756878
-0.0021457796
0.0042790137
0.0082988096
0.0074350992
0.0002937633
0.0040093861
0.0031940769
0.0016547859
0.00063369359
0.0033539722
-0.0015844544
-0.0025216767
-0.0015809288
0
0.00010675714
0.00048465063
-0.0025729083
0.0010128169
0.0026667546
-0.0042750551
-0.0028518399
0.0035995885
0.0056443331
-0.0039351466
0.0042286832
0.0019626152
0.00028181419
-0.0011728108
-0.00098811788
0
-0.0053724279
-0.0036245338
-0.0048041968
-0.0040217992
0.0058455421
-8.0385624e-05
0.0051894924
0.00068312074
0.0039494941
0.0078997025
0.0054424466
0.0078869686
0.0038302795
0.0027153983
-0.0009620401
0
-0.0072861998
-0.0071609765
-0.005805518
-0.0085366219
-0.007840422
-0.0059106355
-0.0070575192
-0.0051960032
-0.0054915757
-0.0025859135
0.0044043567
0.0054942118
-0.0012884056
-0.0039396943
-0.0015661814
0
-0.0011814171
-0.00094257685
-0.001091001
-0.00016968808
0.0018428373
0.0022206504
0.0032892635
0.0031862967
-0.001888842
-0.0057650791
0.00038827432
0.0059359903
0.0064102574
0.0031873579
-2.766957e-05
0
-0.00058245606
-0.00054328202
-0.00077903038
-0.0017832372
-0.00042855481
-0.00068095821
-0.0023627335
-0.0056800819
-0.0056520561
-0.0037996594
0.0035453956
-0.0020042986
0.0010620768
-0.0019036855
0.002496873
0
-0.00074307976
-0.00063527934
0.00087193988
0.00056048704
0.0018520688
0.0029155358
0.0018332531
0.012079176
0.0076153027
0.0015886436
0.0038079997
0.0029035045
-0.00056268967
0.0050018462
0.0013614544
0
-0.0010802428
0.00026383958
0.0032592947
-0.0030997831
-0.0141635
-0.010710401
-0.0041679535
-0.0060998411
0.00021431308
-0.00014703577
0.0039417138
0.0063777636
0.0045078238
0.0029168297
0.0026315479
0
0.0045160349
0.0010863601
-0.0048752874
-0.0051049837
-0.0038822927
-0.004369311
-0.009140335
0.0047734329
0.0058256672
0.0088158604
0.0021008092
0.0011756935
-0.0010357568
-0.0006514485
0.00010086802
0
0.0033488411
0.00074527255
-0.00058929558
-0.0024096891
-0.0070055891
-0.0028698053
-0.00054255791
0.0028517463
0.0011334927
0.00061747903
6.9978523e-05
0.00012834175
0.00075949309
0.00075949309
-0.0007523165
0
-0.0030183881
0.0023044995
0.0028592357
-0.0032690212
-0.0012791164
-0.0038582832
-7.6415687e-05
0.0042076046
0.0063256384
0.0047319815
0.0046971748
0.0019247511
0.0019794351
-0.00017721571
-0.00017721571
0
-0.0049754698
-0.0036597368
-0.0010410229
-0.010670626
-0.0021677229
-0.0062293815
-0.0042706239
-0.0028546753
-0.0025255235
-0.0040439744
0.0015729821
9.4342402e-05
0.0011047582
0.0012931492
-2.1684044e-20
0
0.0013874257
-0.00063734542
-0.0011200298
-0.00069353409
0.0064928196
0.0008310448
-0.00061811978
-0.00540978
0.0042040865
0.00028342195
-0.0029194611
-0.0028658842
-0.0027455969
-0.00079574273
-0.00015320501
0
-0.0028026646
-0.003048979
-0.0048712562
0.0037396101
0.0015276569
-0.0018237409
-0.0017086539
-0.0018295918
-0.0014790192
-0.012094915
-0.004964639
-0.0014075406
-0.0020469301
-0.001509648
-0.001509648
0
-0.0014627662
-0.0017516295
-0.0040953211
-0.0040384615
-0.0072333757
-0.0073234038
-0.0079735806
-0.0028034376
-0.0027858387
-0.006816084
-0.0036795868
-0.0012474589
-0.0011752804
-0.00041766808
-0.00032482424
0
-0.00065929134
-0.0004228584
-0.0001625296
-0.0050790063
0.0025876577
0.0014751325
0.0023315984
0.0022927544
-0.0026075414
-0.0039175237
0.0012064757
-0.0025667972
-0.0018732423
-0.0011007177
-0.00013905221
0
-0.0013437272
0.0028535284
0.0023706355
0.0068495395
0.00024746062
0.0013683868
-9.305765e-05
0.005217962
0.0024520194
0.00098765211
0.00074909889
0.0019515805
0.001281991
0.0022910105
0.00062175334
0
-0.0048148036
-0.0063955863
-0.01137572
-0.011883044
0.00092701317
-0.0039734957
-0.0016301663
-0.0018418232
-0.00031628102
-0.00091782474
-0.0017151836
0.00088099495
0.0020208659
3.7890451e-05
-0.00046853547
0
-0.0063611935
-0.0036941532
-0.003119526
0.00033409437
0.0063997358
0.0056896526
0.003556998
0.0060097142
-0.00087703596
-0.0010704328
-0.0036775752
0.0033849999
0.0033904889
0.0022305246
-0.0015275941
0
-0.0058881245
-0.0068823542
-0.0068828808
-0.0081474185
-0.005157284
-0.0050245402
-0.0018608008
0.0036159565
0.0050243651
0.0052504903
0.0031416519
0.004355493
-0.00040160478
-0.002412912
-0.0019206856
0
-0.001026714
-0.00033622707
-0.00040543001
-0.0014476413
-0.0016582108
0.0016645847
-0.00022637646
0.0027356034
-0.0095512681
0.0036214087
-0.0056232745
0.0096500386
0.0030072832
0.0025491212
-0.00021481173
0
-0.0047931392
-0.0043043979
-0.0051309313
-0.0052371458
-0.0065304674
-0.0035242909
-0.0057286597
-0.0044039153
-0.0028382905
0.0035654318
0.0031525777
0.0040367153
0.0038473024
0.0017855065
0.0032362677
0
-0.0081051802
-0.003972074
-0.0041111265
-0.0047496399
-0.00013462536
0.0015790823
0.00018791227
0.0063057435
0.0039286655
0.0014667211
0.0031059864
0.0048558307
0.0062420499
0.0034661628
0.0036030433
0
-0.006044148
-0.0012475345
-0.00026407163
-0.0022035132
-0.0042569223
-0.0023483129
0.00020363244
-0.00029142061
0.0047064107
0.0063768285
0.0018848449
0.001921904
0.0015517777
0.0034965966
0.0026697114
0
0.0031372572
0.0041942024
-0.0019327602
-0.0050468724
-0.0014645527
0.0010164051
-0.0052849716
0.0010159796
0.0006506163
0.00084160187
0.0015750091
0.0017947502
-0.002623914
-0.00066574628
0
0
0.0043573375
0.001313903
0.000948367
-0.009909478
-0.0010764565
3.7602393e-05
0.001716099
-0.0024648868
-0.0025615401
-0.002326075
-0.00085465203
-0.00030777889
-0.00092953222
-0.0007523165
0
0
0.0062642875
-0.00039222397
0.0024777413
-0.00086121395
0.0063319565
0.001400299
0.00027115183
0.00093540386
0.0010903697
0.0031372812
0.00084755832
0.001647817
-0.00051881158
-0.00033042073
0
0
0.004628282
0.0018578141
0.0010307317
-0.0040907101
0.0012730744
-3.7674192e-05
-0.0043205246
-0.0016039014
-0.0042067128
0.0015871349
0.0010278414
-0.00056590588
-0.00034159588
-0.00018839087
0
0
-0.0017064774
-0.00072589505
-0.0042013619
-0.0015793595
0.0019759766
-0.0049570962
-0.0028360544
-0.0044049099
-0.0012774419
-0.0027654187
0.00091259857
-0.0021149644
-0.0019453382
-0.00042619038
-0.00015320501
0
0.010002681
0.0033941034
-0.000251836
-0.0016321236
-0.0032625578
-0.0048808306
-0.0066148401
-0.0029160772
-0.001028441
0.0016607682
0.0015209281
-0.0019627935
-0.0013054194
-0.0017642509
-0.00086711033
0
0.0047794399
-0.00069335033
-0.00035154942
0.0036044829
0.0037577024
-0.0017819451
0.0076764021
0.0036881
0.0057228752
0.0050478368
0.0010753736
-0.00064398401
-0.0020738521
-0.00073699135
-0.00013905221
0
0.00082848367
-0.0033956242
-0.003428462
0.0018407222
0.0046629091
0.0025613129
-0.00039224885
-0.0014955847
-0.0023372925
-0.0065884348
-0.0019549958
-0.00063292048
-0.001603946
-0.0011007177
-0.00013905221
0
0.0029240169
-0.0082191369
-0.0017983544
0.0020918893
-0.0017069603
-0.0012598509
-0.0016851869
-0.0013249005
-9.7186647e-05
0.00020335159
-1.9077648e-05
0.0014880039
0.00027640752
0.00079638947
0.00079638947
0
0.0036194962
0.0036065644
0.0011075559
-0.0034141871
-0.0049852123
-0.005296302
-0.0076075564
-0.0012935338
0.00028314569
0.0012719806
-0.00035601106
0.00057352119
0.00057352119
0.00057352119
-0.0001818507
0
0.003018989
0.00029957813
0.0020674425
-0.00039628701
7.8579151e-06
0.0034861919
0.00029417188
0.00090807211
0.00090807211
0.0011648117
0.0030365828
0.0015362047
0.0018861758
-0.0024345967
-0.0021051434
0
-0.0026678147
0.0030288366
0.0049750637
-0.00087007298
1.9482901e-05
-0.0015103854
0.0034782831
-0.00034151939
0.0018817602
0.0020000532
0.0028728077
0.0037521229
-0.0020509064
0.00050573924
-0.002412912
0
-0.0029667427
-0.0030434222
0.0032203137
0.0062881638
0.0076129413
0.0075271153
0.0065355645
0.0060011856
-0.00041317605
0.00021665366
0.0042764125
0.0025184292
0.0020103168
-0.0018501304
0.00047913956
0
-0.0040592728
-0.00037619349
-0.0013796084
-0.0010873512
-0.0032925287
-0.0018208374
-0.0016083795
-0.00089198677
-0.0010272643
0.0018384205
0.010591926
-0.00083977118
0.0056190742
0.0025708126
0.00029271399
0
-0.0037219394
-0.0049631377
-0.0057409559
-0.0020074958
-0.0058458433
-0.0062649148
-0.005089703
-0.0028430484
6.4536078e-05
-0.0036302591
-0.0025297122
0.006425343
0.004590157
0.0031441497
0.004353032
0
-0.00066927733
-0.0013071415
-0.007566337
-0.0062472303
-0.0029438157
0.00051222864
0.0026517324
-0.00041090819
0.00067013962
0.0046595018
0.005266387
0.0042903987
0.0042903987
0.0045826212
0.0052526426
0
0.0011405356
-0.0018110602
-0.0011427312
-0.0045090085
-0.0020015999
-0.0036943443
-0.00102838
-0.0017024532
-0.00076091825
0.0015603224
0.0017757702
0.0031759725
0.0031759725
0.00059304113
0
0
0.0032091793
0.0038831222
0.0028565282
-0.0016966076
-0.0064968425
-0.0047273794
-0.0036381483
-0.0037649209
-0.0030233408
-0.00014815727
-0.00010233551
0
0
0
0
0
0.0011132706
-0.00071694393
-0.0019824414
-0.0027254105
-0.0023850144
-0.0040277024
-0.0035080123
-0.0042624744
-0.0012871854
-0.00061602093
-0.00039627979
-0.00034159588
-0.00034159588
-0.00034159588
0
0
-0.00024229129
0.0017124161
-0.0021716207
0.0019403476
0.00499894
0.0039090998
0.0018752057
0.00057412096
0.00032180978
0.0013650235
-0.00056590588
-0.00034159588
-0.00034159588
-0.00034159588
0
0
-0.001819115
-0.0045254403
-0.0021647422
0.0029310994
0.004795026
0.0032446331
-0.0025400401
-0.0014665729
-0.0021349296
-0.0038140975
-0.00035673796
-0.0014560055
-0.0014560055
-0.0014560055
0
0
-0.0014219355
-0.0020564077
-0.0022753743
-0.006155205
0.0018144296
-0.00076204271
-0.00045072695
-0.0073144287
-0.0021564343
-0.0021111225
0.00056193752
-0.00071615499
-0.0021460229
-0.0011162078
0
0
0.0029360799
-0.0050978013
-0.0035338087
0.0030529508
-0.0025866283
-0.0024743178
-0.0026133701
-0.0072200852
-0.0029060212
-0.00075052242
-0.002062713
-0.0003175766
-0.0017474446
-0.00069001748
0
0
0.0019705805
-0.0017466658
-0.00031054823
0.0052368026
-0.0048972662
-0.0028183183
-0.0063809189
-0.0058977134
-0.0008132623
-0.0081616957
-0.0020432067
-0.001219264
0
0
0
0
0.0078397235
0.008285664
0.0078465547
0.003789996
-0.0010132983
-0.0039745709
0.002489072
0.0012504404
0.0013074724
0.00048632352
-0.0017434368
-0.0007713791
-0.00053563074
-0.00053563074
-0.00017463611
0
0.0009089472
0.0027880592
0.0022889625
0.0038084667
-0.0021911948
-0.0032507975
-0.0028264844
-0.0011076962
-0.0018984242
-0.0036277021
-0.0024305587
-0.0015010266
-0.0015010266
-0.0013619743
-0.0010009797
0
0.002370571
0.0042930907
0.0012396647
0.0046510068
0.0031080146
0.00052621885
-0.0021751833
-0.0035643072
-0.0042759683
-0.00092251244
0.0011421584
0.0020924809
0.0037436059
0.00023526022
-0.0021051434
0
0.0018542892
0.0014010384
0.0060061361
-0.00086688745
-0.0005112412
-0.0027177942
-0.0010190072
0.00310985
-0.0036213845
6.0410253e-05
0.0032416477
0.0027992704
-0.0025007878
-0.0025007878
-0.0023066974
0
0.0011483267
0.0015369925
0.0073207743
0.0030131233
0.0036216243
0.0055672489
0.0052103074
0.0051826779
-0.0052090148
-0.00016595506
0.0035653729
-0.0052577956
-0.0035926944
-0.0035926944
-0.0011000783
0
0.0026948473
0.0044152914
0.0061038309
0.0048016189
0.0052790949
0.0033989321
0.0064048525
0.0058518075
-0.0045663123
-0.0055449852
0.0097080842
0.0073453411
0.0025625192
-0.00069729809
-0.0024128819
0
-0.0036419516
0.0029734003
0.003508951
0.00025049591
-0.00042193293
-0.0043339594
0.0074820598
0.0028623757
0.0024363834
0.0074858097
0.0026307192
0.005454482
0.004590157
0.0027303656
0.0032082654
0
0.00088745152
-0.0029098585
-0.0038983668
-0.004002539
-0.0065641371
-0.0049883989
-0.0070253494
-0.0013986902
0.0025669956
0.0049814903
0.0053006453
0.0042903987
0.0042903987
0.0045826212
0.0031759725
0
0.0029379562
0.0019621381
-0.00039342159
-0.0045338385
-0.0075302417
-0.0025723435
-0.001293154
0.0013955974
0.0038161734
0.002482265
0.0031094362
0.0031759725
0.0031759725
0.0016504682
-0.00076661428
0
0.00059558079
-0.0015292583
-0.0023873299
-0.00880179
-0.0074273539
-0.0045098886
-0.0046489406
-0.0039073606
-0.0015184677
-0.00098635547
-0.00021974117
0
0
0
0
0
-0.0046247523
-0.005723001
-0.0052349893
-0.006192069
-0.0043572444
-0.0057140822
-0.0041957684
-0.0011481331
-0.00061602093
-0.00061602093
-0.00034159588
-0.00034159588
-0.00034159588
-0.00034159588
-0.00034159588
0
-0.00097469502
-0.0015694823
-0.0024195497
0.00075528311
0.0024932097
0.0037744602
0.0013376898
7.6535864e-05
-0.00056590588
-0.00056590588
-0.00034159588
-0.00034159588
-0.00034159588
-0.00034159588
-0.00018839087
0
-0.0023526475
-0.0025317273
-0.0038133324
-0.001378344
-0.0013833801
-0.0002619391
0.0026654785
-0.0025185263
-0.0022785193
0.00041106099
0.0014905862
-0.00042619038
-0.00042619038
-0.00042619038
-0.00042619038
0
0.0013754608
0.0024480782
0.0044162865
-4.7813144e-05
0.0019214211
-0.0024003764
-0.0073689534
-0.0010813073
-0.0010431438
0.0014221265
0.0021436347
0.00031366019
-0.0011162078
-0.0011162078
-0.00084322249
0
-5.4875713e-05
-0.00066484127
0.00087223755
-0.0033972736
-0.0047050454
-0.0063130544
-0.0058993176
-0.0022123433
0.00046558803
0.0010480442
-0.00086873246
-0.0003175766
-0.0017474446
-0.00069001748
-0.00058861962
0
0.00094326463
0.0021702615
0.00086296065
0.0030601097
-0.0026366643
-0.0017562167
-0.00050896779
-0.00084987568
-0.0021675408
-0.0022613634
-0.0014327369
-0.00023574835
0
0
0
0
-0.0051085022
-0.0023612729
-0.0050300662
-0.0049593034
-0.009435283
-0.0016990229
-0.0017289571
-0.0023709303
-0.0014250014
-0.0015618592
-0.0015236955
-0.00053563074
-0.00053563074
-0.00053563074
-0.00053563074
0
0.00081887865
0.0037480777
0.0043055937
0.0031130202
-0.0025288379
-0.0011982562
-0.00028302852
0.00076693745
-0.0027771778
-0.0025282837
-0.0022915066
-0.0013619743
-0.0013619743
-0.0013619743
-0.0013619743
0
-0.00013462493
0.0020947489
-0.0010071598
0.0035712144
-0.0013189716
-0.0017628989
-0.0048912494
-0.0043406789
-0.00057961978
0.0018646313
0.0035663904
0.0037436059
0.0037436059
0.00023526022
0.0004840545
0
0.0027115878
0.0047146534
0.0045601488
-0.001302904
0.0029011057
-0.0023551877
-0.0063575045
-0.0018071253
0.00068652059
0.0015475773
0.0027330425
0.00080125296
-0.0025007878
-0.0025007878
-6.6191067e-05
0
0.0017315077
-0.0010605084
-0.00053611683
0.0035854247
0.0035306411
0.0044784588
0.0027904077
-0.005392211
-0.0071621691
-0.0047817333
-0.0030466572
-0.0034857958
-0.0035926944
-0.0035926944
-0.0017782232
0
0.0074504176
0.0089442022
0.010621285
0.0088586817
0.0082916627
0.01028455
0.0079866461
-0.0044451412
-0.0075494638
0.0010487465
0.00033658132
0.00031957458
0.001591658
-0.00069729809
-0.0015853173
0
-0.0014477504
0.00054088776
0.0011267825
0.0053944569
0.0058469335
0.0030846337
0.0045618615
0.0014100384
0.0082449391
0.0024166168
0.00079784606
0.0046505989
0.004590157
0.0022654179
0.0010131855
0
0.00019122388
-0.00072233018
-0.0061612362
-0.0028237829
-0.0026925211
0.0035698763
0.0041692844
0.0016932962
0.0030313651
0.0039714668
0.0051641725
0.0051641725
0.0053006453
0.0048466492
0.0033291774
0
0.00011471145
0.00099776371
-0.00041413575
0.0015382995
0.004693043
0.0023133424
0.0036432194
0.003190167
0.0021356356
0.0038146316
0.0040801945
0.0040801945
0.0040801945
0.0042333994
0.0016504682
0
-0.0032934337
-0.0049390411
-0.0053928206
-0.0057570548
-0.0078884438
-0.0033764949
-0.0032335904
-0.0019903805
-0.00075185334
-0.00070603157
0
0
0
0
0
0
-0.0030237704
-0.0033393751
-0.0016220638
-0.004751049
-0.0024753246
-0.0037669109
-0.0019370654
-0.0017521915
-0.0010476274
-0.00056133704
-0.00034159588
-0.00034159588
-0.00034159588
-0.00034159588
-0.00034159588
0
-0.0015290391
-0.00068516569
-0.0013451561
0.0025799135
-0.00039510967
-0.00025605748
-4.0609611e-05
-4.0609611e-05
-0.00056133704
-0.00034159588
-0.00034159588
-0.00034159588
-0.00034159588
-0.00034159588
-0.00034159588
0
-0.0022502465
-0.0016305016
0.00056077668
0.001146853
0.0024395348
0.00071365357
0.0018586862
0.0028881992
0.0014905862
0.0014905862
-0.00057939539
-0.00057939539
-0.00057939539
-0.00042619038
-0.00042619038
0
-0.0037327998
-0.0037245292
-0.0035854771
-0.0044067032
-0.001747599
0.0022583017
-4.4598342e-05
0.00054086337
0.0021436347
0.0021436347
0.00031366019
-0.0011162078
-0.0011162078
-0.0011162078
-0.0011162078
0
0.0039089918
0.0011569615
0.002093808
0.0022271289
-0.0051846062
0.0016580663
0.0012094787
0.0012525137
0.0022586763
0.0022586763
0.0004668652
0.0004668652
-0.00096300285
-0.00069001748
-0.00069001748
0
0.0010443672
-4.6770288e-05
-0.0014478038
-0.0035771818
-0.0047282097
0.00015451164
-0.00089230767
0.0002595314
0.001827271
-0.00037956837
-0.00010139789
-0.00010139789
-0.00010139789
0
0
0
-0.00037289521
-0.00050991104
-0.0026791757
-0.0035840166
-0.007485982
-0.00040914046
-0.00054819271
-0.0011744061
0.0004903794
-0.0013261108
-0.00053563074
-0.00053563074
-0.00053563074
-0.00053563074
-0.00053563074
0
9.8502882e-05
-0.0004433085
0.0014489411
-0.001036577
-0.0014202963
-0.003782192
-0.0014245722
-0.00065995351
-0.00017428229
-0.0022915066
-0.0013619743
-0.0013619743
-0.0013619743
-0.0013619743
-0.0011131801
0
-0.0030281227
-0.00049955014
-0.0019690052
-0.0017053708
-0.0025482983
-0.003232751
-0.0058240918
-0.00065249891
0.00048235024
0.00012751028
0.0037436059
0.0037436059
0.0037436059
6.062409e-05
0.0012263535
0
0.0011716954
-0.00037127145
-8.9921123e-05
0.0021040339
0.0017958825
0.00055984996
-0.0039839135
0.00076803018
-0.0012267927
0.0017527895
0.00065101846
0.00065101846
-0.0025007878
-0.0025007878
-0.0001839731
0
0.00053355889
0.0006485011
-0.0084605338
-0.0085552009
-0.0010243786
-0.0021521549
-0.0017413633
-0.0088048838
-0.001492625
-0.0015253118
-0.0028534452
-0.0070003928
-0.0039221477
-0.0035926944
-0.0024528233
0
0.0042359694
0.0048200786
0.0022325423
0.003342632
0.009120129
0.0060957358
0.0019636182
-0.0067582033
0.00095362938
0.0013135611
-0.0032242809
-0.0014663255
0.0011284541
0.0025625192
-0.0013252377
0
0
0
-0.00059874961
-0.0014177302
0.0018840883
-0.0047321175
-0.0037474048
0.006128246
0.0011925815
0.0052531776
0.0029262356
0.0011133358
-0.00021974117
0
0
0
0
0
0.0004420217
-0.0017453309
0.0014483164
0.0086506447
-0.010284766
-0.010215943
-0.0040281336
0.0054150098
0.0029490155
0.0025412319
0.0020699815
0.0020699815
0
0
0
0
0.00035849735
0.0012325707
-0.0092325239
-0.0077756206
-0.0057198983
-0.008715312
-0.0055949748
-0.0064745545
-0.00039566844
0.00040459019
-0.00024000696
-0.00024000696
0
0
0
0
0.00074095023
-0.00093984883
-0.0023196186
0.0082730567
0.003700831
0.0052897064
-0.0017570774
-0.0020672048
0.0059919236
0.0048167803
0.001988783
-3.8163511e-05
0
0
0
0
-0.0003216333
-1.3818401e-05
-0.0055188462
0.0032979888
-2.0467824e-05
-0.0084574819
0.0052450602
-0.0024547498
-0.0027811765
0.0045362879
0.0018299747
0
0
0
0
0
0.00045936537
0.001145574
0.0023729007
0.0047412389
-0.005709256
-0.0059649358
-0.0092886277
-0.0007437336
0.0033564437
0.001761838
-0.00047098316
-0.0007523165
0
0
0
-0.0010298151
0.00072269939
0.0016058302
0.0062923464
0.00060602219
-0.0066874227
-0.0017737161
0.0026722753
-0.002718027
-0.002067545
-0.0018739105
-0.0013613581
-0.00079858286
0.00080839789
0
0.0025862036
0.0036766254
0.0049555418
0.0055856369
0.0026612571
-0.00059916999
-0.0072354092
-0.0038955663
-0.00019080305
-0.0046824543
0.0039043266
0.0010424675
-0.0012339469
0.00080839789
0.00080839789
0
-0.000413784
0.0002745403
0.0013034369
0.0048652967
0.00067978381
-0.0084510446
-0.010940472
0.0025909159
0.0016206425
0.00084371923
0.0033161119
0.00045552285
0.0015981881
0
0
0
0
-0.00080197136
0.00011896202
0.0021113916
0.0032583773
0.0034389456
0.0028596006
0.0026716951
-0.0017879496
-0.0028401506
-0.0072684968
-0.0075375922
-0.00092025916
-0.00064253772
0
0
0
0.00062779366
8.5511994e-05
-0.0020980821
-0.0013301261
0.00092218531
-0.0049605332
-0.0097675594
-0.0039359196
-0.0041611074
0.00080762868
0.0024510326
0.00076097337
0
0
0
0
0
-0.00016789843
-0.0016671983
-0.0005743262
-0.00035795229
-0.00046894714
-0.0019706616
-0.00094848429
0.0031782899
0.0016740035
-0.0016242038
-0.00086641271
0
0
0
0
-0.00019250008
-0.00036092839
0.0030000194
0.00431936
0.0051336121
0.012640201
0.0063753868
0.0049495236
0.0029971802
0.0011859494
-0.0013969819
-0.001037162
0
0
0
0
-0.00013905221
0.0016383547
0.0015755348
-0.0025392459
-0.016262459
0.0023140796
-0.0076915487
0.00020931294
0.0036422329
-0.00063796889
-0.00063796889
-0.00021974117
-0.00021974117
0
0
0
0.0012931492
0.0016689769
0.0029292156
-0.0032498396
-0.012501821
-0.010436404
-0.0039578062
-0.0041651959
-3.2149714e-05
-0.00013153067
0.00039964495
-4.3368088e-20
0
0
0
0
0.0012931492
0.0010238528
-0.0033493473
-0.0076212455
-0.0025750778
-0.00079470652
-0.0002598729
-0.0046746922
-0.0019670508
-0.0017058888
-0.0012057613
-0.00021974117
0
0
0
0.00062779366
0.00062779366
0.00062779366
0.00062779366
-2.4972521e-06
-0.0015999272
-0.0014068172
-0.0017093843
0.0016860754
0.0070001627
0.00089540111
-0.0022169449
0.00193044
-0.0019796879
0.0044897264
0
0.00062779366
0.0014361915
0.0014361915
0.0014361915
0.00047345302
-0.00081285398
-0.00657839
-0.0065529435
-0.0075231758
-0.0053940853
-0.0064019118
-0.004278427
-0.0041774171
0.0025691881
0.0045603071
0
0.00062779366
0.00062779366
-0.00071919616
-0.00071919616
-0.0045852885
-0.0035488638
-0.006933704
0.0015494047
-0.00029469645
-0.0047050137
-0.0019392514
0.0015539995
0.0018115907
0.0012160296
0.0041422541
0
0.00062779366
-0.0015275941
-0.0016305136
-0.0016305136
-0.0039473064
0.0029657288
0.0026055216
-0.00079296809
-0.002156083
-0.0042556142
0.012649409
0.0045574722
0.0042339428
0.0031233919
0.0016718023
0
0.00062779366
-0.0015275941
-0.0015275941
-0.0015275941
-0.0016031258
-0.0019864992
0.0016253897
-0.00060300465
-0.0011472502
-0.0043867179
-0.0063875541
0.0066937013
-0.0069503225
-0.0015661794
0.0010292657
0
0.00072866172
-0.0014267261
-0.0017143916
-0.0017143916
-0.0029657539
-0.0058156839
-0.0028389862
-0.0014498434
-0.0035916818
0.0009521661
-0.0079860082
0.0070639392
-0.0063609914
0.00096540846
-0.0023775622
0
0.00072866172
0.00044099611
-0.0018572962
-0.0021265924
-0.0027427345
-0.0025575683
-0.0014335617
-0.0019517812
-0.0060529509
-0.0034641933
0.00095227489
-0.00016817334
0.002616195
-8.3556479e-05
0.0010137485
0
0.00072866172
0.00029809159
0.00046098197
0.00019168566
-0.00057815074
-0.0024843886
-0.00067694328
-0.0018190523
-0.0064646266
-0.0020671431
-0.00084009959
-0.0069077699
-0.01893127
-0.0083132805
0.00024225673
0
0.00010086802
0.00086300337
0.0022718778
0.0022718778
0.0026780437
0.00020525238
-0.003109172
-0.0032623771
-0.0043601687
-0.0076563531
-0.010003301
-0.013783012
-0.005483842
0.0046725948
0.0059484607
0
0.00010086802
0.0011048472
0.0025966212
0.0025966212
0.00080543041
-0.0018168931
-0.0061650095
-0.0024904574
-0.0010936018
-0.0089125922
-0.0015770668
-0.0086988304
-0.0059528723
-0.001746635
0.0015666971
0
0.00010086802
0.00076146133
0.0028842867
0.0028842867
-0.00012953515
-0.0019663761
-0.0031556909
-0.00288714
-0.0022494604
0.0021058619
0.0038473245
-0.0029772064
0.0019276675
-0.0096334182
-0.0012761471
0
0.00010086802
-0.00043124415
0.0030271914
0.002757895
-7.8344118e-07
-0.0023778032
-0.0038075682
-0.0027976776
0.0052166721
0.0098301498
0.0047766282
0.00334886
-0.0015256653
0.0026457564
-0.0015856237
0
0.00010086802
-0.0005244746
-0.00057029637
0.0014261373
0.00076991704
-0.0016471655
0.00053890725
0.0021474883
0.0015298511
0.0016227664
0.0026332589
-0.011454578
0.0012818604
0.0049722237
0.0034957968
0
0
-2.1684044e-20
-0.0004862904
0.0015101433
0.0010082389
-0.0014088437
-0.0011760611
0.0036348377
0.0041981451
0.0032571666
0.0046436344
0.0057163471
-0.00052194891
0.0043578246
-0.0017753966
0
0
0
-2.1684044e-20
0.0010238528
0.0024822538
0.0017839613
0.0011856533
0.00062751328
0.0050416356
-0.00052895991
0.0023007314
0.0043862914
-0.0010894315
0.0013000935
-0.0016908433
0
0.00062779366
0.00062779366
0.00062779366
0.00035849735
-0.00033921213
-7.4786549e-05
-0.0011426461
-0.0001921514
-0.0015657194
0.003296158
0.0075626676
9.4166382e-05
-0.0026089803
-0.00049845694
-0.00098708388
0
0
0.00062779366
0.00026679906
0.00014002655
0.00014002655
0.00054112199
-0.0012925612
-0.0012984293
0.0025155419
-0.0016304323
-0.00089777145
-0.0043760971
-0.0052018911
-0.0046005636
-0.0020099969
0
0
0.0014361915
0.0014361915
0.0013450327
0.00085726561
0.0027978867
0.0010087454
0.0025034132
0.0028631566
-0.0017414872
0.00058948039
0.0053050243
0.010998706
-0.002457944
-0.0034857469
0
-0.00010291945
0.00052487425
0.0013428216
0.0020685969
0.0015018533
-0.0072455453
0.0050454233
-0.0018715574
-0.001798353
-0.0039430787
-0.0029857284
-0.0016586554
-0.0082844757
-0.0025244334
-0.0057826862
0
-0.00015625419
-0.0016291643
-0.0019519954
-0.00095298543
0.0015495266
0.0003472183
0.0084568188
0.001941501
-6.3507141e-05
-0.00073771906
0.0054616253
0.0027368446
0.0042366381
0.0043639201
-0.0025952917
0
-5.3334767e-05
0.0019324269
-0.0017505549
4.4045624e-05
-0.0010127521
0.0082516195
0.0044657378
0.00034265348
-0.0017009198
0.00024852576
-0.0040656175
-0.0026077714
-0.0092653399
-0.0023693563
-0.0048319134
0
0
-0.0010052719
-0.0030032138
-0.00041701007
-0.00068630639
-0.0012531492
0.0033093663
0.0033383043
-0.006704309
-0.0086541977
-0.00226602
0.0095353061
0.0078927502
0.0037053616
0.0046720281
0
0
-0.00028766558
-0.0004305701
0.0017248177
-0.0021408463
-0.0050280211
-0.001758951
-0.001005603
0.00084865256
0.0036720664
0.0019744055
-0.0013882114
0.0015201879
0.0018486677
0.0031318881
0
0
-0.0004305701
9.63891e-05
9.63891e-05
9.63891e-05
0.00059847557
-0.00088579382
-0.002199779
-0.0015426208
0.0064725187
0.0018975764
0.0011549675
-0.010196096
-0.0012162857
0.0001329458
0
0
-0.0013356101
-0.0026989125
0.00044610875
-0.00070144673
-0.0012098942
-0.0012343434
-0.0013939642
0.00028715987
-0.0032966412
0.0066079348
0.0077288076
0.0040569985
-0.0021664666
-0.0020736228
0
0.00025262884
-0.00089425489
-0.0029670489
-0.0024960043
-0.0012205727
-0.0018871934
-0.0017219087
-0.00081067224
0.00039676874
0.0067816176
0.0078550568
-0.007542205
-0.0072946255
-0.00086113642
-0.00019370254
0
0.00025262884
-0.00018783982
-0.004263611
-0.0045344904
-0.0043511116
-0.0039715418
-0.0022661062
-0.00062808365
0.0005072981
0.0013615743
0.0029916319
-0.00060058362
5.7776146e-05
0.0058735381
0.0043802108
0
0
-0.00066162535
-8.9734858e-05
-0.0097471047
-0.0046482119
-0.0031394714
0.0039394014
0.0058903545
0.0077155819
-0.00010480289
-0.0013145283
-0.003003781
-0.0033913672
-0.0026299013
-0.0013094886
0
0
0.00061771227
-0.00023985047
-0.00042472442
-0.0054929759
-0.0039938865
0.0050993958
0.005099826
0.000523025
0.0024215847
0.0045303931
0.0020624269
0.0051280432
0.001977622
0.0059670699
0
0
-0.0002180673
-0.00080668688
-0.0012929774
-0.0016386824
0.00071472273
0.00083270442
0.0055015991
0.0088716531
0.007056029
0.010216129
0.01073825
0.012659953
0.00039196314
0.001861611
0
0
0
0
-2.1684044e-20
-0.00058861962
-0.00047673399
-0.002161406
-0.0038779746
0.00022744721
0.0070021045
-0.0031353133
0.0034846475
-0.00039358565
0.0033642286
-0.00042499835
0
0
0.00062779366
0.00062779366
0.00062779366
0.00062779366
0.00016441908
0.0020558734
0.0017264201
-0.0033729861
-0.00021541202
-1.6456343e-05
7.8982659e-05
0.0021609711
-0.001828161
0.00058788154
0
-0.0098795863
-0.0039632702
-0.0041023223
-0.0045076236
0.00014169843
0.00015157519
0.0012035731
0.0028814347
0.00028741802
-0.002499725
0.0060710907
0.0071357633
0.0045490353
0.0025233156
0.002362018
0
-0.0031181537
-0.00058140518
0.00050172611
0.00072234619
0.00069862563
0.002804707
0.0031160037
0.0002685161
0.0043437271
0.0062403558
0.0039771763
0.0040142355
0.0022698017
0.0044006589
0.0035818063
0
0.0057837926
0.0058363108
0.0014499747
-0.0032472888
0.001334334
0.0014381709
-0.004006682
0.00087950687
-0.0017404275
0.00084160187
0.0017282141
0.0019479552
0.0025293049
0.0032768406
0.0016504682
0
0.0046936623
0.0042642057
0.0026047551
-0.0085924407
-0.0027939677
-5.5241424e-05
0.0016232551
-0.0024648868
-0.0025615401
-0.002326075
-0.00085465203
-0.00030777889
-0.00092953222
-0.0007523165
0
0
0.0085873324
0.00072768214
0.0038157147
-0.00324316
0.0057495004
0.00015910067
-0.00072477257
0.00027666165
0.0010903697
0.0031372812
0.00084755832
0.001647817
-0.00051881158
-0.00051881158
-0.00034159588
0
0.0048440453
0.00013193296
-0.00040572433
-0.0041405186
0.0012730744
0.0016064836
-0.0011362511
-0.0005421997
-0.0042067128
0.0015871349
0.0010278414
-0.00056590588
-0.00034159588
-0.00034159588
-0.00034159588
0
-0.0047871894
-0.00061605324
-4.930975e-05
-0.0033889567
0.0010441828
-0.0036290248
-0.0016564074
-0.00210201
-0.0012774419
-0.0027654187
0.00075939356
-0.0022681693
-0.0020985433
-0.0013028005
-0.00057939539
0
0.0046834517
0.0031173569
0.0033563878
-0.00333676
-0.0040176455
-0.0054827137
-0.0072167227
-0.0027628723
-0.001028441
0.0016607682
0.0015209281
-0.0019627935
-0.0023352343
-0.0026258559
-0.0019833182
0
0.00053388486
-0.0012179685
-0.00064427161
0.0035944022
0.003616614
-0.00092898757
0.0086825648
0.0046512275
0.0057228752
0.0050478368
0.0008023883
-0.00091696944
-0.0023468374
-0.00083838927
-0.0008290697
0
0.002342589
-0.0013533938
-0.0013739518
0.00077998283
0.0031840361
0.0011480007
-0.0014050357
-0.00053096283
-0.0023372925
-0.0065884348
-0.0020563935
0.00038013316
-0.001705344
-0.0011007177
-0.00013905221
0
-0.0013040948
-0.0062843347
0.00038692655
0.0034314897
-0.0057219579
-0.0020913249
-0.0025166608
-0.003789996
0.0061584595
0.00011634905
-1.9077648e-05
0.0014880039
0.00027640752
0.001157384
0.001157384
0
0.0037006268
0.0032756769
0.0018317532
-0.003015911
-0.0018116545
-0.004727399
-0.0063199694
-0.0030478244
-0.00045915326
0.00052968157
-0.00035601106
0.00057352119
0.00057352119
0.00057352119
0.00035378002
0
0.0028204971
0.0042741881
0.0014836884
0.0036522157
0.0016017877
0.0068667638
0.0021972521
0.0026886335
0.0019050386
0.00016784521
0.0030365828
0.0015362047
0.0017115397
6.062409e-05
0.0004840545
0
-0.0035619689
-0.00048485358
0.0031926718
0.0038394302
0.0010928266
-0.0021283806
-0.00066693121
-0.0027994143
0.0012023958
0.0013259731
0.002341632
0.0032209472
-0.0028362013
-0.0026070024
-0.001287154
0
-0.0027771867
-0.0036955541
-0.00076486025
0.0005053489
0.0077674389
0.00867547
0.0070344498
0.0073411013
-0.0010272836
0.0051373444
0.0053600571
0.00048402639
0.00086335879
-0.0036646016
-0.0026676352
0
-0.0021620037
0.00081651198
0.00081651198
-0.00018212205
-0.0014744021
-0.001859428
-0.001930293
-0.00038890203
-0.0027224417
-0.0038824694
0.0034093277
0.0027273276
0.0029635294
-0.0038695617
0.00065533107
0
0
0
0
0
0.00062779366
0.0011007964
-0.0010595741
-0.00043394143
0.001944857
0.0018165302
0.0017697647
0.001498026
0.0043586306
0.0011244705
0.0064445613
0
0
0
0.00062779366
0.00062779366
0.00062779366
0.00039409072
-0.00080089289
-0.0013257093
-0.0021363017
0.00076319894
0.00057613233
0.0016948152
0.0061138198
0.0067516421
0.0040351064
0
0
0
0.00062779366
-0.0015275941
-0.0015275941
-0.0023486435
-0.0025435323
0.0026854663
0.00097429316
-0.0047522341
-0.0029854849
-0.0026782507
-0.0004638742
0.0029860972
0.00076219527
0
0
0
0
-0.0015275941
-0.0015275941
-0.0017876737
0.0021994032
-0.0037413521
-0.002405795
0.00073095766
0.0068473546
0.0099669276
0.0087677985
0.0083407369
4.3652703e-06
0
0
0
0
0.00062779366
-0.0015275941
0.00012380585
0.0022808088
0.0019727487
-0.00077194197
0.00083936745
-0.0044127656
0.0086789643
-0.0065174308
0.0010582109
-0.0034610934
0
0
0
0.00062779366
0.00034012808
7.0831768e-05
-7.2072755e-05
-1.9098681e-05
0.0024993818
-0.00086115167
-0.0010423706
-0.00222701
0.010938739
0.0066399518
0.0049197935
0.0053532682
0
0
0
0
-0.0004305701
0.00019722356
-0.0017620962
-0.00097680103
-0.0031321889
-0.00092976453
-0.00059228519
-0.0014862269
0.0064177215
0.0069480967
0.0015342979
0.0036772767
0
0
0
0.00010086802
0.0011506689
0.00086300337
0.00081718166
-0.00076693739
-0.0017054375
-0.0020968809
0.0017993399
-0.0050169542
-0.011625153
-0.021069434
-0.0050707781
0.0019319997
0
0
0
0
0.0012477518
0.0011048472
0.00061855681
-0.0006847711
-0.0022875709
-0.0010434281
-0.0025171184
-0.0010653954
-0.0032674065
-0.0011160354
0.0053676302
0.0050918492
0
0
0
0
-0.00043124415
0.00076146133
0.00057307043
-0.0010524268
-0.00010501736
-0.0037383474
-0.0016853499
0.0056545879
-0.0098376572
-0.0087662647
-0.0043538883
-0.0040491694
0
0
0
0
-0.0004862904
-0.00043124415
-0.00043124415
0.00043401823
0.00047864876
0.0036853477
0.002981097
0.011929782
-0.0019918473
-0.0016034436
-0.0059784437
-0.004684878
0
0
0
0
-2.1684044e-20
-0.00038542241
-0.00053862738
-0.00059674954
0.0011204042
0.0035636965
0.0023235986
0.0015432101
-0.0026588652
-0.0070095356
0.0031588748
-0.00036228957
0
0
0
0
0
0.0013940171
0.00075194967
0.0031320557
0.0014492968
-4.3800534e-05
0.00085580902
0.0042124377
-0.0044086953
0.00089991797
0.0054781502
0.0079056071
0
0
0
0
0
0
0.0012931492
-0.0019946559
0.0030607323
0.0051198369
9.6782547e-05
0.0016611561
0.0085363751
0.0013038206
0.0060460526
0.00015316265
0
0
0
0
0
0
0.0012931492
0.00025905969
-0.0019548864
0.0021651625
0.0037026405
-0.00111757
0.017729795
-0.0021396261
-0.00068602554
-0.0045686648
0
0
0
0
0
0
-0.00035716005
0.0013140489
0.00098459562
-0.0028255871
-0.0003369003
-0.0039394111
-0.0097429063
-0.0023287367
-0.0025158317
0